6 128
1 -0.1143023 -0.10782107 0.07072217 -0.059110273 0.16752708 -0.19069174 0.063025385 0.113365114 0.045362733 -0.14026676 0.083947755 0.04884963 0.012311259 -0.16253302 -0.07756658 -0.27579385 0.06684032 -0.171665 0.06721814 -0.007057342 0.06861964 0.09509053 -0.06933403 0.16968133 0.102791026 -0.05894145 -0.030735137 0.12849054 0.1962199 -0.017598659 -0.17558363 -0.08223979 -0.16901903 0.15301317 -0.09295638 -0.16103138 -0.0068137315 0.014781465 0.1407703 -0.031902663 0.06739115 -0.15975054 0.11069159 0.15225428 -0.113592945 -0.13657548 -0.053654283 -0.11558382 -0.009091018 0.0045169042 0.023871174 0.013359871 0.015558313 0.119037315 -0.17375739 -0.03891204 0.07172703 0.14178072 -0.054027725 0.06387973 -0.024750916 -0.11357685 -0.023556834 0.07317184 -0.11159692 0.11953591 0.076826915 0.08389706 -0.09876556 -0.16551727 -0.0070991353 -0.053931717 0.10757131 -0.10953733 -0.009778147 -0.13156812 0.18480393 -0.1511385 0.041030686 -0.15607354 -0.10993733 -0.14235555 -0.12864633 -0.08717696 0.011196508 -0.087725 0.06044321 0.040258482 0.18026607 -0.015891371 0.024116065 0.055388283 -0.042384643 -0.065067776 -0.23369342 0.09337375 -0.2267064 -0.123422354 0.17383574 0.16888422 -0.21370932 0.0726277 0.053519335 -0.13189319 -0.048441447 0.10735998 0.11570176 0.124852635 -0.13494521 -0.044356205 -0.037334062 -0.042658165 0.10060805 0.032053888 -0.12919065 0.085151054 0.14916022 0.15495038 -0.008052399 -0.034228586 -0.04163432 0.020894866 -0.13726355 -0.20399731 -0.18237221 0.07385573 0.07794503 0.18780658
4 -0.09834356 -0.08917461 0.060310237 -0.04506911 0.15147002 -0.16771962 0.05727444 0.102578945 0.035656255 -0.12911841 0.083923645 0.044164613 0.007285895 -0.14774643 -0.06692228 -0.2472393 0.060517978 -0.16365196 0.05922465 -0.0044781077 0.06061193 0.08768087 -0.06962113 0.15468664 0.10063458 -0.058592774 -0.0333402 0.11424123 0.18544264 -0.010584918 -0.1608613 -0.08581603 -0.17510188 0.15812291 -0.09371215 -0.16452034 0.0029102913 0.024948837 0.13794944 -0.027379248 0.07435581 -0.16306984 0.11651088 0.15578951 -0.11874648 -0.13837461 -0.048248045 -0.12773815 -0.0162365 0.0017084611 0.034330305 0.0074703265 0.01415569 0.118687905 -0.17474705 -0.044443786 0.0759997 0.14083609 -0.048484784 0.0604432 -0.024497401 -0.11072257 -0.018528767 0.079335906 -0.09840263 0.1098809 0.06752245 0.07890259 -0.08879818 -0.160474 -0.0035131238 -0.04443709 0.09457629 -0.1019523 -0.00088078063 -0.12276528 0.17485122 -0.13451898 0.034408703 -0.13846442 -0.104300976 -0.12963021 -0.12209038 -0.07737165 0.018116148 -0.082194805 0.06515945 0.037227184 0.16736439 -0.015405702 0.021358175 0.052953206 -0.042736664 -0.059915688 -0.22359718 0.093350895 -0.22334822 -0.119557984 0.16901301 0.16070832 -0.20604965 0.06654031 0.049983155 -0.124611355 -0.05485646 0.10473818 0.105272114 0.12201642 -0.12699126 -0.047724906 -0.02805048 -0.037844215 0.09554996 0.028289989 -0.120939106 0.09135528 0.14051588 0.14678138 -0.0012967824 -0.030333474 -0.038002867 0.014590455 -0.12880687 -0.20429039 -0.18129466 0.07482097 0.08275665 0.17993043
2 -0.09647306 -0.09857279 0.05967828 -0.051581193 0.15278137 -0.17169553 0.06384118 0.105318725 0.034730118 -0.13173638 0.08018726 0.049672075 0.010288626 -0.15350568 -0.06893123 -0.25903654 0.056794 -0.16064374 0.05950063 -0.0060694995 0.0643239 0.09163818 -0.06416912 0.15855816 0.094592795 -0.060608163 -0.033602808 0.115296304 0.1880046 -0.010383465 -0.15877569 -0.08492963 -0.1759382 0.15986185 -0.09555072 -0.15767562 -0.00060503726 0.015905617 0.13813023 -0.03201174 0.07426989 -0.1534141 0.11367753 0.14890097 -0.121248 -0.13530569 -0.052347556 -0.12252636 -0.008698447 -0.0002439194 0.028925 0.007366634 0.01824999 0.120118864 -0.17435253 -0.04317751 0.07686938 0.14229515 -0.052159492 0.06438592 -0.029189782 -0.10593165 -0.02040536 0.07108416 -0.104375035 0.11375622 0.06955029 0.07422152 -0.09505366 -0.1601802 -0.0075441278 -0.04826381 0.09947255 -0.1021803 -0.007061048 -0.11847283 0.17243256 -0.14090148 0.03604852 -0.14502017 -0.10853079 -0.13196123 -0.12611419 -0.07787836 0.017444301 -0.07857228 0.059817605 0.038659655 0.17219602 -0.019601187 0.027771918 0.0567723 -0.038674954 -0.06491153 -0.22696896 0.091737844 -0.22306727 -0.123191096 0.16550888 0.1674524 -0.20125437 0.06351224 0.05121382 -0.1344753 -0.05290231 0.097330056 0.11547373 0.12678806 -0.13324311 -0.04462902 -0.03793769 -0.03560615 0.10131361 0.025968783 -0.13075636 0.08939368 0.14898756 0.1529808 -0.0068931594 -0.033543095 -0.04252484 0.01421589 -0.12851891 -0.21234028 -0.18111795 0.07851552 0.086159304 0.18501209
5 -0.09281174 -0.09127179 0.054488465 -0.040936444 0.14513753 -0.15602005 0.0650059 0.09027872 0.033123624 -0.12377549 0.08203998 0.041988116 -0.0032207617 -0.14105237 -0.05901123 -0.2380996 0.056262545 -0.16217268 0.05395602 -0.007108055 0.055918794 0.088841975 -0.07023383 0.1554663 0.100884736 -0.06380535 -0.030429594 0.102656156 0.1770533 -0.0038975633 -0.1553614 -0.08625383 -0.17537454 0.1597714 -0.08721103 -0.16466355 0.0040841126 0.028287545 0.13025412 -0.028537583 0.07597829 -0.15705931 0.11066693 0.1484096 -0.12456313 -0.1304984 -0.041411016 -0.12739529 -0.014602056 0.004828922 0.03296988 0.013146177 0.012273718 0.10966306 -0.1640857 -0.050825205 0.073502235 0.13389684 -0.04478896 0.05634529 -0.030593744 -0.10416717 -0.01658414 0.082640596 -0.09895471 0.09784868 0.07248019 0.07394468 -0.08307847 -0.15931682 -0.0029207326 -0.041936588 0.080620356 -0.09332841 0.001465875 -0.120089956 0.16375126 -0.13230424 0.03223093 -0.13840139 -0.10645857 -0.114921816 -0.11781215 -0.07484655 0.016686944 -0.08228671 0.06307864 0.04208826 0.15646993 -0.017135514 0.027354425 0.05234413 -0.03511539 -0.052800596 -0.21857631 0.092028625 -0.21844167 -0.11636405 0.17036135 0.15918641 -0.20098442 0.061995912 0.039281804 -0.1293414 -0.055222727 0.1011265 0.104793854 0.118396275 -0.121296994 -0.04899975 -0.029600453 -0.033163317 0.09366944 0.023542402 -0.11851003 0.09391425 0.14015523 0.14115322 0.006480359 -0.027267339 -0.04018629 0.010311018 -0.11806706 -0.20192112 -0.17935275 0.07555374 0.07863711 0.17484728
3 -0.09810213 -0.088226914 0.062940165 -0.03962596 0.14627971 -0.15753648 0.06533161 0.0958889 0.025727157 -0.12521675 0.08337401 0.036843006 -0.0048420727 -0.1490851 -0.063438356 -0.2420862 0.062888116 -0.16623585 0.05563253 -0.011670717 0.051248938 0.08865508 -0.069736436 0.15791553 0.10638943 -0.06474352 -0.030786375 0.109884664 0.18639591 0.0015469225 -0.15828106 -0.09057409 -0.17884314 0.16399266 -0.09140876 -0.16708432 0.0053642937 0.030923983 0.13316381 -0.027115982 0.07450869 -0.16226672 0.11615265 0.15384273 -0.12643589 -0.13317025 -0.038861122 -0.13237186 -0.018767811 0.009797568 0.03843345 0.008518226 0.00466435 0.11529648 -0.17014489 -0.052283417 0.0704833 0.13743305 -0.04888274 0.063544616 -0.032443188 -0.10057288 -0.019773778 0.08518562 -0.09812057 0.0970185 0.07417914 0.07975282 -0.08611423 -0.16518731 0.0020751546 -0.04246876 0.082339846 -0.08963435 0.0033786464 -0.12241108 0.17517076 -0.13282682 0.039609015 -0.13905014 -0.10908154 -0.11641108 -0.12213302 -0.07927658 0.022545077 -0.080780864 0.0643211 0.041033763 0.15806656 -0.018812185 0.0241268 0.058148988 -0.039282937 -0.054997396 -0.22842482 0.09809875 -0.23273142 -0.118640035 0.18167488 0.16524352 -0.21277551 0.06622399 0.04016388 -0.13445885 -0.054314956 0.113520905 0.108856946 0.12635876 -0.12205529 -0.0536438 -0.025111582 -0.034913935 0.097921826 0.0285504 -0.12102258 0.09881785 0.14304376 0.14969969 0.0072863665 -0.029759694 -0.043549232 0.004788217 -0.12596168 -0.21096385 -0.18939787 0.07873856 0.087226756 0.18115203
6 -0.098849915 -0.096461 0.0636359 -0.036236513 0.15676923 -0.16527435 0.0738453 0.1046397 0.028295053 -0.13396308 0.09228426 0.041775163 -0.0064680306 -0.16015883 -0.062130656 -0.25896117 0.06368354 -0.18735515 0.0631147 -0.014377911 0.05725464 0.095306955 -0.07956018 0.16886333 0.12000912 -0.076187916 -0.033678107 0.11193101 0.20491098 0.0057575423 -0.17241628 -0.10579923 -0.21252593 0.1962463 -0.10752453 -0.19918185 0.008773061 0.041295364 0.15342313 -0.039593827 0.08965684 -0.18835612 0.14442475 0.17851171 -0.15872198 -0.1576624 -0.04464099 -0.164758 -0.014813191 0.012193935 0.04488077 0.013923578 0.005259985 0.13799308 -0.19917594 -0.06629931 0.08873048 0.16284229 -0.052672666 0.06804672 -0.032728758 -0.11896812 -0.0211433 0.101425275 -0.10792881 0.10375135 0.075539954 0.08515905 -0.09845493 -0.18581867 0.003152747 -0.046983592 0.08679632 -0.09572579 0.007317063 -0.13405287 0.19169405 -0.14063576 0.03794937 -0.15090679 -0.12781022 -0.12580436 -0.13353086 -0.0837265 0.030440893 -0.09654287 0.077655025 0.044258084 0.17644805 -0.021085126 0.033697795 0.06584273 -0.039483275 -0.058243457 -0.25425377 0.11030443 -0.25738123 -0.14146535 0.2045639 0.18342298 -0.23097739 0.06916431 0.046398178 -0.15139379 -0.0681911 0.12591179 0.12134011 0.14756215 -0.13632216 -0.061284244 -0.026629835 -0.03485951 0.1095147 0.032165132 -0.13700983 0.11769047 0.1654926 0.1639201 0.008221147 -0.03407004 -0.04695004 0.0038685633 -0.13505927 -0.24650271 -0.21783789 0.091811165 0.10440143 0.19884653
